digraph Tree {
node [shape=box, style="filled, rounded", color="black", fontname=helvetica] ;
edge [fontname=helvetica] ;
0 [label="X[108] <= 0.5\ngini = 0.976\nsamples = 4920\nvalue = [120, 120, 120, 120, 120, 120, 120, 120, 120, 120\n120, 120, 120, 120, 120, 120, 120, 120, 120, 120\n120, 120, 120, 120, 120, 120, 120, 120, 120, 120\n120, 120, 120, 120, 120, 120, 120, 120, 120, 120\n120]\nclass = (vertigo) Paroymsal  Positional Vertigo", fillcolor="#ffffff"] ;
1 [label="X[101] <= 0.5\ngini = 0.975\nsamples = 4800\nvalue = [120, 120, 120, 120, 120, 120, 120, 120, 120, 120\n120, 120, 120, 120, 120, 120, 120, 120, 120, 120\n120, 120, 120, 120, 120, 120, 120, 120, 120, 120\n120, 120, 120, 120, 0, 120, 120, 120, 120, 120\n120]\nclass = (vertigo) Paroymsal  Positional Vertigo", fillcolor="#ffffff"] ;
0 -> 1 [labeldistance=2.5, labelangle=45, headlabel="True"] ;
2 [label="X[104] <= 0.5\ngini = 0.974\nsamples = 4560\nvalue = [120, 120, 120, 120, 120, 120, 120, 120, 120, 120\n120, 120, 120, 120, 120, 120, 120, 120, 120, 120\n120, 120, 120, 120, 0, 120, 0, 120, 120, 120, 120\n120, 120, 120, 0, 120, 120, 120, 120, 120, 120]\nclass = (vertigo) Paroymsal  Positional Vertigo", fillcolor="#ffffff"] ;
1 -> 2 ;
3 [label="X[88] <= 0.5\ngini = 0.973\nsamples = 4440\nvalue = [120, 120, 120, 120, 120, 120, 120, 120, 120, 120\n120, 120, 0, 120, 120, 120, 120, 120, 120, 120\n120, 120, 120, 120, 0, 120, 0, 120, 120, 120, 120\n120, 120, 120, 0, 120, 120, 120, 120, 120, 120]\nclass = (vertigo) Paroymsal  Positional Vertigo", fillcolor="#ffffff"] ;
2 -> 3 ;
4 [label="X[36] <= 0.5\ngini = 0.972\nsamples = 4320\nvalue = [120, 120, 120, 120, 120, 120, 120, 120, 120, 120\n0, 120, 0, 120, 120, 120, 120, 120, 120, 120, 120\n120, 120, 120, 0, 120, 0, 120, 120, 120, 120, 120\n120, 120, 0, 120, 120, 120, 120, 120, 120]\nclass = (vertigo) Paroymsal  Positional Vertigo", fillcolor="#ffffff"] ;
3 -> 4 ;
5 [label="X[50] <= 0.5\ngini = 0.971\nsamples = 4200\nvalue = [120, 120, 120, 120, 120, 120, 120, 120, 120, 120\n0, 0, 0, 120, 120, 120, 120, 120, 120, 120, 120\n120, 120, 120, 0, 120, 0, 120, 120, 120, 120, 120\n120, 120, 0, 120, 120, 120, 120, 120, 120]\nclass = (vertigo) Paroymsal  Positional Vertigo", fillcolor="#ffffff"] ;
4 -> 5 ;
6 [label="X[97] <= 0.5\ngini = 0.971\nsamples = 4080\nvalue = [120, 120, 120, 120, 120, 120, 120, 120, 120, 120\n0, 0, 0, 120, 120, 120, 120, 120, 120, 120, 120\n120, 120, 120, 0, 120, 0, 120, 120, 120, 120, 120\n120, 120, 0, 120, 0, 120, 120, 120, 120]\nclass = (vertigo) Paroymsal  Positional Vertigo", fillcolor="#ffffff"] ;
5 -> 6 ;
7 [label="X[120] <= 0.5\ngini = 0.969\nsamples = 3840\nvalue = [120, 120, 120, 120, 120, 120, 120, 120, 120, 120\n0, 0, 0, 120, 120, 120, 120, 120, 120, 120, 120\n120, 120, 120, 0, 120, 0, 120, 120, 0, 120, 120\n120, 120, 0, 120, 0, 120, 120, 120, 0]\nclass = (vertigo) Paroymsal  Positional Vertigo", fillcolor="#ffffff"] ;
6 -> 7 ;
8 [label="X[111] <= 0.5\ngini = 0.968\nsamples = 3720\nvalue = [120, 120, 120, 120, 120, 120, 120, 120, 120, 120\n0, 0, 0, 120, 120, 120, 120, 120, 120, 120, 120\n120, 120, 120, 0, 0, 0, 120, 120, 0, 120, 120\n120, 120, 0, 120, 0, 120, 120, 120, 0]\nclass = (vertigo) Paroymsal  Positional Vertigo", fillcolor="#ffffff"] ;
7 -> 8 ;
9 [label="X[113] <= 0.5\ngini = 0.967\nsamples = 3600\nvalue = [120, 120, 120, 120, 120, 120, 120, 120, 120, 120\n0, 0, 0, 120, 120, 120, 120, 120, 120, 0, 120\n120, 120, 120, 0, 0, 0, 120, 120, 0, 120, 120\n120, 120, 0, 120, 0, 120, 120, 120, 0]\nclass = (vertigo) Paroymsal  Positional Vertigo", fillcolor="#ffffff"] ;
8 -> 9 ;
10 [label="X[99] <= 0.5\ngini = 0.966\nsamples = 3480\nvalue = [120, 120, 120, 120, 120, 120, 120, 120, 120, 120\n0, 0, 0, 120, 120, 120, 120, 120, 120, 0, 120\n120, 0, 120, 0, 0, 0, 120, 120, 0, 120, 120, 120\n120, 0, 120, 0, 120, 120, 120, 0]\nclass = (vertigo) Paroymsal  Positional Vertigo", fillcolor="#ffffff"] ;
9 -> 10 ;
11 [label="X[5] <= 0.5\ngini = 0.964\nsamples = 3360\nvalue = [120, 120, 120, 120, 120, 120, 120, 120, 0, 120, 0\n0, 0, 120, 120, 120, 120, 120, 120, 0, 120, 120\n0, 120, 0, 0, 0, 120, 120, 0, 120, 120, 120, 120\n0, 120, 0, 120, 120, 120, 0]\nclass = (vertigo) Paroymsal  Positional Vertigo", fillcolor="#ffffff"] ;
10 -> 11 ;
12 [label="X[66] <= 0.5\ngini = 0.962\nsamples = 3132\nvalue = [120, 120, 120, 120, 12, 120, 120, 120, 0, 120, 0\n0, 0, 120, 120, 120, 120, 120, 120, 0, 120, 120\n0, 120, 0, 0, 0, 120, 120, 0, 120, 120, 120, 120\n0, 120, 0, 0, 120, 120, 0]\nclass = (vertigo) Paroymsal  Positional Vertigo", fillcolor="#ffffff"] ;
11 -> 12 ;
13 [label="X[59] <= 0.5\ngini = 0.96\nsamples = 3018\nvalue = [120, 120, 120, 120, 12, 120, 120, 120, 0, 120, 0\n0, 0, 120, 120, 120, 120, 120, 120, 0, 120, 120\n0, 120, 0, 0, 0, 120, 120, 0, 120, 120, 120, 120\n0, 120, 0, 0, 120, 6, 0]\nclass = (vertigo) Paroymsal  Positional Vertigo", fillcolor="#ffffff"] ;
12 -> 13 ;
14 [label="X[93] <= 0.5\ngini = 0.959\nsamples = 2904\nvalue = [120, 120, 120, 120, 12, 120, 120, 120, 0, 120, 0\n0, 0, 6, 120, 120, 120, 120, 120, 0, 120, 120, 0\n120, 0, 0, 0, 120, 120, 0, 120, 120, 120, 120, 0\n120, 0, 0, 120, 6, 0]\nclass = (vertigo) Paroymsal  Positional Vertigo", fillcolor="#ffffff"] ;
13 -> 14 ;
15 [label="X[129] <= 0.5\ngini = 0.957\nsamples = 2790\nvalue = [120, 120, 120, 120, 12, 120, 120, 120, 0, 120, 0\n0, 0, 6, 120, 120, 120, 120, 120, 0, 120, 120, 0\n120, 0, 0, 0, 120, 120, 0, 120, 120, 120, 6, 0\n120, 0, 0, 120, 6, 0]\nclass = (vertigo) Paroymsal  Positional Vertigo", fillcolor="#ffffff"] ;
14 -> 15 ;
16 [label="X[95] <= 0.5\ngini = 0.956\nsamples = 2676\nvalue = [120, 120, 120, 120, 12, 120, 120, 120, 0, 120, 0\n0, 0, 6, 120, 120, 120, 120, 120, 0, 120, 120, 0\n120, 0, 0, 0, 6, 120, 0, 120, 120, 120, 6, 0\n120, 0, 0, 120, 6, 0]\nclass = (vertigo) Paroymsal  Positional Vertigo", fillcolor="#ffffff"] ;
15 -> 16 ;
17 [label="X[40] <= 0.5\ngini = 0.954\nsamples = 2562\nvalue = [120, 120, 120, 120, 12, 120, 120, 120, 0, 120, 0\n0, 0, 6, 120, 120, 120, 120, 120, 0, 120, 120, 0\n120, 0, 0, 0, 6, 120, 0, 6, 120, 120, 6, 0\n120, 0, 0, 120, 6, 0]\nclass = (vertigo) Paroymsal  Positional Vertigo", fillcolor="#ffffff"] ;
16 -> 17 ;
18 [label="X[116] <= 0.5\ngini = 0.952\nsamples = 2448\nvalue = [120, 120, 120, 120, 12, 120, 120, 120, 0, 120, 0\n0, 0, 6, 120, 120, 120, 6, 120, 0, 120, 120, 0\n120, 0, 0, 0, 6, 120, 0, 6, 120, 120, 6, 0\n120, 0, 0, 120, 6, 0]\nclass = (vertigo) Paroymsal  Positional Vertigo", fillcolor="#ffffff"] ;
17 -> 18 ;
19 [label="X[109] <= 0.5\ngini = 0.95\nsamples = 2334\nvalue = [120, 120, 120, 6, 12, 120, 120, 120, 0, 120, 0\n0, 0, 6, 120, 120, 120, 6, 120, 0, 120, 120, 0\n120, 0, 0, 0, 6, 120, 0, 6, 120, 120, 6, 0\n120, 0, 0, 120, 6, 0]\nclass = (vertigo) Paroymsal  Positional Vertigo", fillcolor="#ffffff"] ;
18 -> 19 ;
20 [label="X[107] <= 0.5\ngini = 0.947\nsamples = 2220\nvalue = [120, 120, 120, 6, 12, 120, 120, 120, 0, 120, 0\n0, 0, 6, 120, 120, 120, 6, 120, 0, 120, 120, 0\n6, 0, 0, 0, 6, 120, 0, 6, 120, 120, 6, 0, 120\n0, 0, 120, 6, 0]\nclass = (vertigo) Paroymsal  Positional Vertigo", fillcolor="#ffffff"] ;
19 -> 20 ;
21 [label="X[79] <= 0.5\ngini = 0.945\nsamples = 2106\nvalue = [120, 120, 120, 6, 12, 120, 6, 120, 0, 120, 0, 0\n0, 6, 120, 120, 120, 6, 120, 0, 120, 120, 0, 6\n0, 0, 0, 6, 120, 0, 6, 120, 120, 6, 0, 120, 0\n0, 120, 6, 0]\nclass = (vertigo) Paroymsal  Positional Vertigo", fillcolor="#ffffff"] ;
20 -> 21 ;
22 [label="X[126] <= 0.5\ngini = 0.942\nsamples = 1992\nvalue = [120, 120, 120, 6, 12, 120, 6, 120, 0, 120, 0, 0\n0, 6, 120, 120, 120, 6, 120, 0, 120, 120, 0, 6\n0, 0, 0, 6, 120, 0, 6, 6, 120, 6, 0, 120, 0\n0, 120, 6, 0]\nclass = (vertigo) Paroymsal  Positional Vertigo", fillcolor="#ffffff"] ;
21 -> 22 ;
23 [label="X[83] <= 0.5\ngini = 0.939\nsamples = 1878\nvalue = [120, 120, 120, 6, 12, 120, 6, 120, 0, 120, 0, 0\n0, 6, 120, 120, 120, 6, 120, 0, 120, 120, 0, 6\n0, 0, 0, 6, 120, 0, 6, 6, 120, 6, 0, 6, 0, 0\n120, 6, 0]\nclass = (vertigo) Paroymsal  Positional Vertigo", fillcolor="#ffffff"] ;
22 -> 23 ;
24 [label="X[98] <= 0.5\ngini = 0.935\nsamples = 1764\nvalue = [120, 120, 120, 6, 12, 6, 6, 120, 0, 120, 0, 0\n0, 6, 120, 120, 120, 6, 120, 0, 120, 120, 0, 6\n0, 0, 0, 6, 120, 0, 6, 6, 120, 6, 0, 6, 0, 0\n120, 6, 0]\nclass = (vertigo) Paroymsal  Positional Vertigo", fillcolor="#ffffff"] ;
23 -> 24 ;
25 [label="X[89] <= 0.5\ngini = 0.931\nsamples = 1650\nvalue = [120, 120, 120, 6, 12, 6, 6, 120, 0, 120, 0, 0\n0, 6, 120, 120, 120, 6, 120, 0, 120, 120, 0, 6\n0, 0, 0, 6, 120, 0, 6, 6, 6, 6, 0, 6, 0, 0\n120, 6, 0]\nclass = (vertigo) Paroymsal  Positional Vertigo", fillcolor="#ffffff"] ;
24 -> 25 ;
26 [label="X[19] <= 0.5\ngini = 0.926\nsamples = 1536\nvalue = [120, 120, 120, 6, 12, 6, 6, 120, 0, 120, 0, 0\n0, 6, 120, 120, 120, 6, 120, 0, 120, 120, 0, 6\n0, 0, 0, 6, 120, 0, 6, 6, 6, 6, 0, 6, 0, 0\n6, 6, 0]\nclass = (vertigo) Paroymsal  Positional Vertigo", fillcolor="#ffffff"] ;
25 -> 26 ;
27 [label="X[86] <= 0.5\ngini = 0.921\nsamples = 1422\nvalue = [120, 120, 120, 6, 12, 6, 6, 120, 0, 120, 0, 0\n0, 6, 120, 120, 120, 6, 120, 0, 120, 120, 0, 6\n0, 0, 0, 6, 6, 0, 6, 6, 6, 6, 0, 6, 0, 0\n6, 6, 0]\nclass = (vertigo) Paroymsal  Positional Vertigo", fillcolor="#ffffff"] ;
26 -> 27 ;
28 [label="X[56] <= 0.5\ngini = 0.915\nsamples = 1308\nvalue = [6, 120, 120, 6, 12, 6, 6, 120, 0, 120, 0, 0, 0\n6, 120, 120, 120, 6, 120, 0, 120, 120, 0, 6, 0\n0, 0, 6, 6, 0, 6, 6, 6, 6, 0, 6, 0, 0, 6\n6, 0]\nclass = AIDS", fillcolor="#ffffff"] ;
27 -> 28 ;
29 [label="X[64] <= 0.5\ngini = 0.899\nsamples = 1074\nvalue = [6, 120, 120, 6, 12, 6, 6, 120, 0, 120, 0, 0, 0\n6, 120, 120, 6, 6, 6, 0, 120, 120, 0, 0, 0, 0\n0, 6, 6, 0, 6, 6, 6, 6, 0, 6, 0, 0, 6, 6\n0]\nclass = AIDS", fillcolor="#ffffff"] ;
28 -> 29 ;
30 [label="X[33] <= 0.5\ngini = 0.89\nsamples = 960\nvalue = [6, 120, 120, 6, 12, 6, 6, 6, 0, 120, 0, 0, 0\n6, 120, 120, 6, 6, 6, 0, 120, 120, 0, 0, 0, 0\n0, 6, 6, 0, 6, 6, 6, 6, 0, 6, 0, 0, 6, 6\n0]\nclass = AIDS", fillcolor="#ffffff"] ;
29 -> 30 ;
31 [label="X[106] <= 0.5\ngini = 0.876\nsamples = 840\nvalue = [6, 120, 120, 6, 12, 6, 6, 6, 0, 120, 0, 0, 0\n6, 120, 120, 6, 6, 6, 0, 120, 6, 0, 0, 0, 0\n0, 6, 0, 0, 6, 6, 6, 6, 0, 6, 0, 0, 6, 6\n0]\nclass = AIDS", fillcolor="#ffffff"] ;
30 -> 31 ;
32 [label="X[25] <= 0.5\ngini = 0.86\nsamples = 720\nvalue = [6, 120, 120, 6, 12, 6, 0, 6, 0, 120, 0, 0, 0\n6, 120, 120, 6, 6, 6, 0, 6, 6, 0, 0, 0, 0, 0\n6, 0, 0, 6, 6, 6, 6, 0, 6, 0, 0, 6, 6, 0]\nclass = AIDS", fillcolor="#ffffff"] ;
31 -> 32 ;
33 [label="X[2] <= 0.5\ngini = 0.838\nsamples = 600\nvalue = [6, 6, 120, 6, 12, 6, 0, 6, 0, 120, 0, 0, 0\n6, 120, 120, 6, 6, 6, 0, 6, 6, 0, 0, 0, 0, 0\n0, 0, 0, 6, 6, 6, 6, 0, 6, 0, 0, 6, 6, 0]\nclass = Acne", fillcolor="#ffffff"] ;
32 -> 33 ;
34 [label="X[123] <= 0.5\ngini = 0.818\nsamples = 492\nvalue = [6, 6, 120, 6, 12, 6, 0, 6, 0, 120, 0, 0, 0\n6, 120, 12, 6, 6, 6, 0, 6, 6, 0, 0, 0, 0, 0\n0, 0, 0, 6, 6, 6, 6, 0, 6, 0, 0, 6, 6, 0]\nclass = Acne", fillcolor="#ffffff"] ;
33 -> 34 ;
35 [label="X[13] <= 0.5\ngini = 0.797\nsamples = 384\nvalue = [6, 6, 12, 6, 12, 6, 0, 6, 0, 120, 0, 0, 0, 6\n120, 12, 6, 6, 6, 0, 6, 6, 0, 0, 0, 0, 0, 0\n0, 0, 6, 6, 6, 6, 0, 6, 0, 0, 6, 6, 0]\nclass = Chronic cholestasis", fillcolor="#ffffff"] ;
34 -> 35 ;
36 [label="X[43] <= 0.5\ngini = 0.795\nsamples = 276\nvalue = [6, 6, 12, 6, 12, 6, 0, 6, 0, 120, 0, 0, 0, 6\n12, 12, 6, 6, 6, 0, 6, 6, 0, 0, 0, 0, 0, 0\n0, 0, 6, 6, 6, 6, 0, 6, 0, 0, 6, 6, 0]\nclass = Chronic cholestasis", fillcolor="#c1f4ae"] ;
35 -> 36 ;
37 [label="X[124] <= 0.5\ngini = 0.947\nsamples = 150\nvalue = [6, 6, 12, 6, 12, 6, 0, 6, 0, 6, 0, 0, 0, 6\n12, 12, 6, 6, 6, 0, 0, 0, 0, 0, 0, 0, 0, 0\n0, 0, 6, 6, 6, 6, 0, 6, 0, 0, 6, 6, 0]\nclass = Acne", fillcolor="#ffffff"] ;
36 -> 37 ;
38 [label="X[4] <= 0.5\ngini = 0.945\nsamples = 138\nvalue = [6, 6, 0, 6, 12, 6, 0, 6, 0, 6, 0, 0, 0, 6\n12, 12, 6, 6, 6, 0, 0, 0, 0, 0, 0, 0, 0, 0\n0, 0, 6, 6, 6, 6, 0, 6, 0, 0, 6, 6, 0]\nclass = Allergy", fillcolor="#ffffff"] ;
37 -> 38 ;
39 [label="X[102] <= 0.5\ngini = 0.943\nsamples = 126\nvalue = [6, 6, 0, 6, 0, 6, 0, 6, 0, 6, 0, 0, 0, 6\n12, 12, 6, 6, 6, 0, 0, 0, 0, 0, 0, 0, 0, 0\n0, 0, 6, 6, 6, 6, 0, 6, 0, 0, 6, 6, 0]\nclass = Drug Reaction", fillcolor="#ffffff"] ;
38 -> 39 ;
40 [label="X[0] <= 0.5\ngini = 0.942\nsamples = 114\nvalue = [6, 6, 0, 6, 0, 6, 0, 6, 0, 6, 0, 0, 0, 6\n12, 0, 6, 6, 6, 0, 0, 0, 0, 0, 0, 0, 0, 0\n0, 0, 6, 6, 6, 6, 0, 6, 0, 0, 6, 6, 0]\nclass = Drug Reaction", fillcolor="#f4fef8"] ;
39 -> 40 ;
41 [label="X[91] <= 0.5\ngini = 0.938\nsamples = 96\nvalue = [6, 6, 0, 6, 0, 6, 0, 6, 0, 0, 0, 0, 0, 6\n0, 0, 6, 6, 6, 0, 0, 0, 0, 0, 0, 0, 0, 0\n0, 0, 6, 6, 6, 6, 0, 6, 0, 0, 6, 6, 0]\nclass = (vertigo) Paroymsal  Positional Vertigo", fillcolor="#ffffff"] ;
40 -> 41 ;
42 [label="X[27] <= 0.5\ngini = 0.933\nsamples = 90\nvalue = [6, 6, 0, 6, 0, 6, 0, 6, 0, 0, 0, 0, 0, 6\n0, 0, 6, 6, 6, 0, 0, 0, 0, 0, 0, 0, 0, 0\n0, 0, 6, 6, 6, 6, 0, 6, 0, 0, 0, 6, 0]\nclass = (vertigo) Paroymsal  Positional Vertigo", fillcolor="#ffffff"] ;
41 -> 42 ;
43 [label="X[57] <= 0.5\ngini = 0.929\nsamples = 84\nvalue = [6, 6, 0, 6, 0, 6, 0, 6, 0, 0, 0, 0, 0, 6\n0, 0, 6, 6, 0, 0, 0, 0, 0, 0, 0, 0, 0, 0\n0, 0, 6, 6, 6, 6, 0, 6, 0, 0, 0, 6, 0]\nclass = (vertigo) Paroymsal  Positional Vertigo", fillcolor="#ffffff"] ;
42 -> 43 ;
44 [label="X[85] <= 0.5\ngini = 0.923\nsamples = 78\nvalue = [6, 6, 0, 6, 0, 6, 0, 0, 0, 0, 0, 0, 0, 6\n0, 0, 6, 6, 0, 0, 0, 0, 0, 0, 0, 0, 0, 0\n0, 0, 6, 6, 6, 6, 0, 6, 0, 0, 0, 6, 0]\nclass = (vertigo) Paroymsal  Positional Vertigo", fillcolor="#ffffff"] ;
43 -> 44 ;
45 [label="X[26] <= 0.5\ngini = 0.917\nsamples = 72\nvalue = [0, 6, 0, 6, 0, 6, 0, 0, 0, 0, 0, 0, 0, 6\n0, 0, 6, 6, 0, 0, 0, 0, 0, 0, 0, 0, 0, 0\n0, 0, 6, 6, 6, 6, 0, 6, 0, 0, 0, 6, 0]\nclass = AIDS", fillcolor="#ffffff"] ;
44 -> 45 ;
46 [label="X[22] <= 0.5\ngini = 0.909\nsamples = 66\nvalue = [0, 6, 0, 6, 0, 6, 0, 0, 0, 0, 0, 0, 0, 6\n0, 0, 6, 0, 0, 0, 0, 0, 0, 0, 0, 0, 0, 0\n0, 0, 6, 6, 6, 6, 0, 6, 0, 0, 0, 6, 0]\nclass = AIDS", fillcolor="#ffffff"] ;
45 -> 46 ;
47 [label="X[8] <= 0.5\ngini = 0.9\nsamples = 60\nvalue = [0, 0, 0, 6, 0, 6, 0, 0, 0, 0, 0, 0, 0, 6\n0, 0, 6, 0, 0, 0, 0, 0, 0, 0, 0, 0, 0, 0\n0, 0, 6, 6, 6, 6, 0, 6, 0, 0, 0, 6, 0]\nclass = Alcoholic hepatitis", fillcolor="#ffffff"] ;
46 -> 47 ;
48 [label="X[46] <= 0.5\ngini = 0.875\nsamples = 48\nvalue = [0, 0, 0, 6, 0, 6, 0, 0, 0, 0, 0, 0, 0, 6\n0, 0, 0, 0, 0, 0, 0, 0, 0, 0, 0, 0, 0, 0\n0, 0, 0, 6, 6, 6, 0, 6, 0, 0, 0, 6, 0]\nclass = Alcoholic hepatitis", fillcolor="#ffffff"] ;
47 -> 48 ;
49 [label="X[1] <= 0.5\ngini = 0.857\nsamples = 42\nvalue = [0, 0, 0, 0, 0, 6, 0, 0, 0, 0, 0, 0, 0, 6\n0, 0, 0, 0, 0, 0, 0, 0, 0, 0, 0, 0, 0, 0\n0, 0, 0, 6, 6, 6, 0, 6, 0, 0, 0, 6, 0]\nclass = Arthritis", fillcolor="#ffffff"] ;
48 -> 49 ;
50 [label="X[14] <= 0.5\ngini = 0.833\nsamples = 36\nvalue = [0, 0, 0, 0, 0, 6, 0, 0, 0, 0, 0, 0, 0, 6\n0, 0, 0, 0, 0, 0, 0, 0, 0, 0, 0, 0, 0, 0\n0, 0, 0, 6, 6, 6, 0, 0, 0, 0, 0, 6, 0]\nclass = Arthritis", fillcolor="#ffffff"] ;
49 -> 50 ;
51 [label="X[78] <= 0.5\ngini = 0.8\nsamples = 30\nvalue = [0, 0, 0, 0, 0, 6, 0, 0, 0, 0, 0, 0, 0, 6\n0, 0, 0, 0, 0, 0, 0, 0, 0, 0, 0, 0, 0, 0\n0, 0, 0, 6, 6, 6, 0, 0, 0, 0, 0, 0, 0]\nclass = Arthritis", fillcolor="#ffffff"] ;
50 -> 51 ;
52 [label="X[11] <= 0.5\ngini = 0.75\nsamples = 24\nvalue = [0, 0, 0, 0, 0, 6, 0, 0, 0, 0, 0, 0, 0, 6\n0, 0, 0, 0, 0, 0, 0, 0, 0, 0, 0, 0, 0, 0\n0, 0, 0, 0, 6, 6, 0, 0, 0, 0, 0, 0, 0]\nclass = Arthritis", fillcolor="#ffffff"] ;
51 -> 52 ;
53 [label="X[121] <= 0.5\ngini = 0.5\nsamples = 12\nvalue = [0, 0, 0, 0, 0, 6, 0, 0, 0, 0, 0, 0, 0, 6\n0, 0, 0, 0, 0, 0, 0, 0, 0, 0, 0, 0, 0, 0\n0, 0, 0, 0, 0, 0, 0, 0, 0, 0, 0, 0, 0]\nclass = Arthritis", fillcolor="#ffffff"] ;
52 -> 53 ;
54 [label="gini = 0.0\nsamples = 6\nvalue = [0, 0, 0, 0, 0, 0, 0, 0, 0, 0, 0, 0, 0, 6\n0, 0, 0, 0, 0, 0, 0, 0, 0, 0, 0, 0, 0, 0\n0, 0, 0, 0, 0, 0, 0, 0, 0, 0, 0, 0, 0]\nclass = Dimorphic hemmorhoids(piles)", fillcolor="#39e56f"] ;
53 -> 54 ;
55 [label="gini = 0.0\nsamples = 6\nvalue = [0, 0, 0, 0, 0, 6, 0, 0, 0, 0, 0, 0, 0, 0\n0, 0, 0, 0, 0, 0, 0, 0, 0, 0, 0, 0, 0, 0\n0, 0, 0, 0, 0, 0, 0, 0, 0, 0, 0, 0, 0]\nclass = Arthritis", fillcolor="#cee539"] ;
53 -> 55 ;
56 [label="X[30] <= 0.5\ngini = 0.5\nsamples = 12\nvalue = [0, 0, 0, 0, 0, 0, 0, 0, 0, 0, 0, 0, 0, 0\n0, 0, 0, 0, 0, 0, 0, 0, 0, 0, 0, 0, 0, 0\n0, 0, 0, 0, 6, 6, 0, 0, 0, 0, 0, 0, 0]\nclass = Paralysis (brain hemorrhage)", fillcolor="#ffffff"] ;
52 -> 56 ;
57 [label="gini = 0.0\nsamples = 6\nvalue = [0, 0, 0, 0, 0, 0, 0, 0, 0, 0, 0, 0, 0, 0\n0, 0, 0, 0, 0, 0, 0, 0, 0, 0, 0, 0, 0, 0\n0, 0, 0, 0, 6, 0, 0, 0, 0, 0, 0, 0, 0]\nclass = Paralysis (brain hemorrhage)", fillcolor="#e539d7"] ;
56 -> 57 ;
58 [label="gini = 0.0\nsamples = 6\nvalue = [0, 0, 0, 0, 0, 0, 0, 0, 0, 0, 0, 0, 0, 0\n0, 0, 0, 0, 0, 0, 0, 0, 0, 0, 0, 0, 0, 0\n0, 0, 0, 0, 0, 6, 0, 0, 0, 0, 0, 0, 0]\nclass = Peptic ulcer diseae", fillcolor="#e539bd"] ;
56 -> 58 ;
59 [label="gini = 0.0\nsamples = 6\nvalue = [0, 0, 0, 0, 0, 0, 0, 0, 0, 0, 0, 0, 0, 0\n0, 0, 0, 0, 0, 0, 0, 0, 0, 0, 0, 0, 0, 0\n0, 0, 0, 6, 0, 0, 0, 0, 0, 0, 0, 0, 0]\nclass = Osteoarthristis", fillcolor="#dc39e5"] ;
51 -> 59 ;
60 [label="gini = 0.0\nsamples = 6\nvalue = [0, 0, 0, 0, 0, 0, 0, 0, 0, 0, 0, 0, 0, 0\n0, 0, 0, 0, 0, 0, 0, 0, 0, 0, 0, 0, 0, 0\n0, 0, 0, 0, 0, 0, 0, 0, 0, 0, 0, 6, 0]\nclass = Varicose veins", fillcolor="#e54d39"] ;
50 -> 60 ;
61 [label="gini = 0.0\nsamples = 6\nvalue = [0, 0, 0, 0, 0, 0, 0, 0, 0, 0, 0, 0, 0, 0\n0, 0, 0, 0, 0, 0, 0, 0, 0, 0, 0, 0, 0, 0\n0, 0, 0, 0, 0, 0, 0, 6, 0, 0, 0, 0, 0]\nclass = Psoriasis", fillcolor="#e53989"] ;
49 -> 61 ;
62 [label="gini = 0.0\nsamples = 6\nvalue = [0, 0, 0, 6, 0, 0, 0, 0, 0, 0, 0, 0, 0, 0\n0, 0, 0, 0, 0, 0, 0, 0, 0, 0, 0, 0, 0, 0\n0, 0, 0, 0, 0, 0, 0, 0, 0, 0, 0, 0, 0]\nclass = Alcoholic hepatitis", fillcolor="#e5cb39"] ;
48 -> 62 ;
63 [label="X[9] <= 0.5\ngini = 0.5\nsamples = 12\nvalue = [0, 0, 0, 0, 0, 0, 0, 0, 0, 0, 0, 0, 0, 0\n0, 0, 6, 0, 0, 0, 0, 0, 0, 0, 0, 0, 0, 0\n0, 0, 6, 0, 0, 0, 0, 0, 0, 0, 0, 0, 0]\nclass = GERD", fillcolor="#ffffff"] ;
47 -> 63 ;
64 [label="gini = 0.0\nsamples = 6\nvalue = [0, 0, 0, 0, 0, 0, 0, 0, 0, 0, 0, 0, 0, 0\n0, 0, 0, 0, 0, 0, 0, 0, 0, 0, 0, 0, 0, 0\n0, 0, 6, 0, 0, 0, 0, 0, 0, 0, 0, 0, 0]\nclass = Migraine", fillcolor="#c339e5"] ;
63 -> 64 ;
65 [label="gini = 0.0\nsamples = 6\nvalue = [0, 0, 0, 0, 0, 0, 0, 0, 0, 0, 0, 0, 0, 0\n0, 0, 6, 0, 0, 0, 0, 0, 0, 0, 0, 0, 0, 0\n0, 0, 0, 0, 0, 0, 0, 0, 0, 0, 0, 0, 0]\nclass = GERD", fillcolor="#39e5ba"] ;
63 -> 65 ;
66 [label="gini = 0.0\nsamples = 6\nvalue = [0, 6, 0, 0, 0, 0, 0, 0, 0, 0, 0, 0, 0, 0\n0, 0, 0, 0, 0, 0, 0, 0, 0, 0, 0, 0, 0, 0\n0, 0, 0, 0, 0, 0, 0, 0, 0, 0, 0, 0, 0]\nclass = AIDS", fillcolor="#e59839"] ;
46 -> 66 ;
67 [label="gini = 0.0\nsamples = 6\nvalue = [0, 0, 0, 0, 0, 0, 0, 0, 0, 0, 0, 0, 0, 0\n0, 0, 0, 6, 0, 0, 0, 0, 0, 0, 0, 0, 0, 0\n0, 0, 0, 0, 0, 0, 0, 0, 0, 0, 0, 0, 0]\nclass = Gastroenteritis", fillcolor="#39e5d4"] ;
45 -> 67 ;
68 [label="gini = 0.0\nsamples = 6\nvalue = [6, 0, 0, 0, 0, 0, 0, 0, 0, 0, 0, 0, 0, 0\n0, 0, 0, 0, 0, 0, 0, 0, 0, 0, 0, 0, 0, 0\n0, 0, 0, 0, 0, 0, 0, 0, 0, 0, 0, 0, 0]\nclass = (vertigo) Paroymsal  Positional Vertigo", fillcolor="#e58139"] ;
44 -> 68 ;
69 [label="gini = 0.0\nsamples = 6\nvalue = [0, 0, 0, 0, 0, 0, 0, 6, 0, 0, 0, 0, 0, 0\n0, 0, 0, 0, 0, 0, 0, 0, 0, 0, 0, 0, 0, 0\n0, 0, 0, 0, 0, 0, 0, 0, 0, 0, 0, 0, 0]\nclass = Cervical spondylosis", fillcolor="#9ae539"] ;
43 -> 69 ;
70 [label="gini = 0.0\nsamples = 6\nvalue = [0, 0, 0, 0, 0, 0, 0, 0, 0, 0, 0, 0, 0, 0\n0, 0, 0, 0, 6, 0, 0, 0, 0, 0, 0, 0, 0, 0\n0, 0, 0, 0, 0, 0, 0, 0, 0, 0, 0, 0, 0]\nclass = Heart attack", fillcolor="#39dce5"] ;
42 -> 70 ;
71 [label="gini = 0.0\nsamples = 6\nvalue = [0, 0, 0, 0, 0, 0, 0, 0, 0, 0, 0, 0, 0, 0\n0, 0, 0, 0, 0, 0, 0, 0, 0, 0, 0, 0, 0, 0\n0, 0, 0, 0, 0, 0, 0, 0, 0, 0, 6, 0, 0]\nclass = Urinary tract infection", fillcolor="#e5393f"] ;
41 -> 71 ;
72 [label="X[12] <= 0.5\ngini = 0.444\nsamples = 18\nvalue = [0, 0, 0, 0, 0, 0, 0, 0, 0, 6, 0, 0, 0, 0\n12, 0, 0, 0, 0, 0, 0, 0, 0, 0, 0, 0, 0, 0\n0, 0, 0, 0, 0, 0, 0, 0, 0, 0, 0, 0, 0]\nclass = Drug Reaction", fillcolor="#9cf2c2"] ;
40 -> 72 ;
73 [label="gini = 0.0\nsamples = 6\nvalue = [0, 0, 0, 0, 0, 0, 0, 0, 0, 6, 0, 0, 0, 0\n0, 0, 0, 0, 0, 0, 0, 0, 0, 0, 0, 0, 0, 0\n0, 0, 0, 0, 0, 0, 0, 0, 0, 0, 0, 0, 0]\nclass = Chronic cholestasis", fillcolor="#67e539"] ;
72 -> 73 ;
74 [label="gini = 0.0\nsamples = 12\nvalue = [0, 0, 0, 0, 0, 0, 0, 0, 0, 0, 0, 0, 0, 0\n12, 0, 0, 0, 0, 0, 0, 0, 0, 0, 0, 0, 0, 0\n0, 0, 0, 0, 0, 0, 0, 0, 0, 0, 0, 0, 0]\nclass = Drug Reaction", fillcolor="#39e586"] ;
72 -> 74 ;
75 [label="gini = 0.0\nsamples = 12\nvalue = [0, 0, 0, 0, 0, 0, 0, 0, 0, 0, 0, 0, 0, 0\n0, 12, 0, 0, 0, 0, 0, 0, 0, 0, 0, 0, 0, 0\n0, 0, 0, 0, 0, 0, 0, 0, 0, 0, 0, 0, 0]\nclass = Fungal infection", fillcolor="#39e5a0"] ;
39 -> 75 ;
76 [label="gini = 0.0\nsamples = 12\nvalue = [0, 0, 0, 0, 12, 0, 0, 0, 0, 0, 0, 0, 0, 0\n0, 0, 0, 0, 0, 0, 0, 0, 0, 0, 0, 0, 0, 0\n0, 0, 0, 0, 0, 0, 0, 0, 0, 0, 0, 0, 0]\nclass = Allergy", fillcolor="#e5e539"] ;
38 -> 76 ;
77 [label="gini = 0.0\nsamples = 12\nvalue = [0, 0, 12, 0, 0, 0, 0, 0, 0, 0, 0, 0, 0, 0\n0, 0, 0, 0, 0, 0, 0, 0, 0, 0, 0, 0, 0, 0\n0, 0, 0, 0, 0, 0, 0, 0, 0, 0, 0, 0, 0]\nclass = Acne", fillcolor="#e5b139"] ;
37 -> 77 ;
78 [label="X[14] <= 0.5\ngini = 0.177\nsamples = 126\nvalue = [0, 0, 0, 0, 0, 0, 0, 0, 0, 114, 0, 0, 0, 0\n0, 0, 0, 0, 0, 0, 6, 6, 0, 0, 0, 0, 0, 0\n0, 0, 0, 0, 0, 0, 0, 0, 0, 0, 0, 0, 0]\nclass = Chronic cholestasis", fillcolor="#76e84d"] ;
36 -> 78 ;
79 [label="gini = 0.0\nsamples = 114\nvalue = [0, 0, 0, 0, 0, 0, 0, 0, 0, 114, 0, 0, 0, 0\n0, 0, 0, 0, 0, 0, 0, 0, 0, 0, 0, 0, 0, 0\n0, 0, 0, 0, 0, 0, 0, 0, 0, 0, 0, 0, 0]\nclass = Chronic cholestasis", fillcolor="#67e539"] ;
78 -> 79 ;
80 [label="X[11] <= 0.5\ngini = 0.5\nsamples = 12\nvalue = [0, 0, 0, 0, 0, 0, 0, 0, 0, 0, 0, 0, 0, 0\n0, 0, 0, 0, 0, 0, 6, 6, 0, 0, 0, 0, 0, 0\n0, 0, 0, 0, 0, 0, 0, 0, 0, 0, 0, 0, 0]\nclass = Hepatitis C", fillcolor="#ffffff"] ;
78 -> 80 ;
81 [label="gini = 0.0\nsamples = 6\nvalue = [0, 0, 0, 0, 0, 0, 0, 0, 0, 0, 0, 0, 0, 0\n0, 0, 0, 0, 0, 0, 6, 0, 0, 0, 0, 0, 0, 0\n0, 0, 0, 0, 0, 0, 0, 0, 0, 0, 0, 0, 0]\nclass = Hepatitis C", fillcolor="#39ace5"] ;
80 -> 81 ;
82 [label="gini = 0.0\nsamples = 6\nvalue = [0, 0, 0, 0, 0, 0, 0, 0, 0, 0, 0, 0, 0, 0\n0, 0, 0, 0, 0, 0, 0, 6, 0, 0, 0, 0, 0, 0\n0, 0, 0, 0, 0, 0, 0, 0, 0, 0, 0, 0, 0]\nclass = Hepatitis D", fillcolor="#3992e5"] ;
80 -> 82 ;
83 [label="gini = 0.0\nsamples = 108\nvalue = [0, 0, 0, 0, 0, 0, 0, 0, 0, 0, 0, 0, 0, 0\n108, 0, 0, 0, 0, 0, 0, 0, 0, 0, 0, 0, 0, 0\n0, 0, 0, 0, 0, 0, 0, 0, 0, 0, 0, 0, 0]\nclass = Drug Reaction", fillcolor="#39e586"] ;
35 -> 83 ;
84 [label="gini = 0.0\nsamples = 108\nvalue = [0, 0, 108, 0, 0, 0, 0, 0, 0, 0, 0, 0, 0, 0\n0, 0, 0, 0, 0, 0, 0, 0, 0, 0, 0, 0, 0, 0\n0, 0, 0, 0, 0, 0, 0, 0, 0, 0, 0, 0, 0]\nclass = Acne", fillcolor="#e5b139"] ;
34 -> 84 ;
85 [label="gini = 0.0\nsamples = 108\nvalue = [0, 0, 0, 0, 0, 0, 0, 0, 0, 0, 0, 0, 0, 0\n0, 108, 0, 0, 0, 0, 0, 0, 0, 0, 0, 0, 0, 0\n0, 0, 0, 0, 0, 0, 0, 0, 0, 0, 0, 0, 0]\nclass = Fungal infection", fillcolor="#39e5a0"] ;
33 -> 85 ;
86 [label="X[130] <= 0.5\ngini = 0.095\nsamples = 120\nvalue = [0, 114, 0, 0, 0, 0, 0, 0, 0, 0, 0, 0, 0, 0\n0, 0, 0, 0, 0, 0, 0, 0, 0, 0, 0, 0, 0, 6\n0, 0, 0, 0, 0, 0, 0, 0, 0, 0, 0, 0, 0]\nclass = AIDS", fillcolor="#e69d43"] ;
32 -> 86 ;
87 [label="gini = 0.0\nsamples = 114\nvalue = [0, 114, 0, 0, 0, 0, 0, 0, 0, 0, 0, 0, 0, 0\n0, 0, 0, 0, 0, 0, 0, 0, 0, 0, 0, 0, 0, 0\n0, 0, 0, 0, 0, 0, 0, 0, 0, 0, 0, 0, 0]\nclass = AIDS", fillcolor="#e59839"] ;
86 -> 87 ;
88 [label="gini = 0.0\nsamples = 6\nvalue = [0, 0, 0, 0, 0, 0, 0, 0, 0, 0, 0, 0, 0, 0\n0, 0, 0, 0, 0, 0, 0, 0, 0, 0, 0, 0, 0, 6\n0, 0, 0, 0, 0, 0, 0, 0, 0, 0, 0, 0, 0]\nclass = Impetigo", fillcolor="#7839e5"] ;
86 -> 88 ;
89 [label="X[24] <= 0.5\ngini = 0.095\nsamples = 120\nvalue = [0, 0, 0, 0, 0, 0, 6, 0, 0, 0, 0, 0, 0, 0\n0, 0, 0, 0, 0, 0, 114, 0, 0, 0, 0, 0, 0, 0\n0, 0, 0, 0, 0, 0, 0, 0, 0, 0, 0, 0, 0]\nclass = Hepatitis C", fillcolor="#43b0e6"] ;
31 -> 89 ;
90 [label="gini = 0.0\nsamples = 114\nvalue = [0, 0, 0, 0, 0, 0, 0, 0, 0, 0, 0, 0, 0, 0\n0, 0, 0, 0, 0, 0, 114, 0, 0, 0, 0, 0, 0, 0\n0, 0, 0, 0, 0, 0, 0, 0, 0, 0, 0, 0, 0]\nclass = Hepatitis C", fillcolor="#39ace5"] ;
89 -> 90 ;
91 [label="gini = 0.0\nsamples = 6\nvalue = [0, 0, 0, 0, 0, 0, 6, 0, 0, 0, 0, 0, 0, 0\n0, 0, 0, 0, 0, 0, 0, 0, 0, 0, 0, 0, 0, 0\n0, 0, 0, 0, 0, 0, 0, 0, 0, 0, 0, 0, 0]\nclass = Bronchial Asthma", fillcolor="#b4e539"] ;
89 -> 91 ;
92 [label="X[25] <= 0.5\ngini = 0.095\nsamples = 120\nvalue = [0, 0, 0, 0, 0, 0, 0, 0, 0, 0, 0, 0, 0, 0\n0, 0, 0, 0, 0, 0, 0, 114, 0, 0, 0, 0, 0, 0\n6, 0, 0, 0, 0, 0, 0, 0, 0, 0, 0, 0, 0]\nclass = Hepatitis D", fillcolor="#4398e6"] ;
30 -> 92 ;
93 [label="gini = 0.0\nsamples = 114\nvalue = [0, 0, 0, 0, 0, 0, 0, 0, 0, 0, 0, 0, 0, 0\n0, 0, 0, 0, 0, 0, 0, 114, 0, 0, 0, 0, 0, 0\n0, 0, 0, 0, 0, 0, 0, 0, 0, 0, 0, 0, 0]\nclass = Hepatitis D", fillcolor="#3992e5"] ;
92 -> 93 ;
94 [label="gini = 0.0\nsamples = 6\nvalue = [0, 0, 0, 0, 0, 0, 0, 0, 0, 0, 0, 0, 0, 0\n0, 0, 0, 0, 0, 0, 0, 0, 0, 0, 0, 0, 0, 0\n6, 0, 0, 0, 0, 0, 0, 0, 0, 0, 0, 0, 0]\nclass = Jaundice", fillcolor="#8f39e5"] ;
92 -> 94 ;
95 [label="gini = 0.0\nsamples = 114\nvalue = [0, 0, 0, 0, 0, 0, 0, 114, 0, 0, 0, 0, 0, 0\n0, 0, 0, 0, 0, 0, 0, 0, 0, 0, 0, 0, 0, 0\n0, 0, 0, 0, 0, 0, 0, 0, 0, 0, 0, 0, 0]\nclass = Cervical spondylosis", fillcolor="#9ae539"] ;
29 -> 95 ;
96 [label="X[24] <= 0.5\ngini = 0.525\nsamples = 234\nvalue = [0, 0, 0, 0, 0, 0, 0, 0, 0, 0, 0, 0, 0, 0\n0, 0, 114, 0, 114, 0, 0, 0, 0, 6, 0, 0, 0, 0\n0, 0, 0, 0, 0, 0, 0, 0, 0, 0, 0, 0, 0]\nclass = GERD", fillcolor="#ffffff"] ;
28 -> 96 ;
97 [label="X[85] <= 0.5\ngini = 0.177\nsamples = 126\nvalue = [0, 0, 0, 0, 0, 0, 0, 0, 0, 0, 0, 0, 0, 0\n0, 0, 6, 0, 114, 0, 0, 0, 0, 6, 0, 0, 0, 0\n0, 0, 0, 0, 0, 0, 0, 0, 0, 0, 0, 0, 0]\nclass = Heart attack", fillcolor="#4de0e8"] ;
96 -> 97 ;
98 [label="X[9] <= 0.5\ngini = 0.095\nsamples = 120\nvalue = [0, 0, 0, 0, 0, 0, 0, 0, 0, 0, 0, 0, 0, 0\n0, 0, 6, 0, 114, 0, 0, 0, 0, 0, 0, 0, 0, 0\n0, 0, 0, 0, 0, 0, 0, 0, 0, 0, 0, 0, 0]\nclass = Heart attack", fillcolor="#43dee6"] ;
97 -> 98 ;
99 [label="gini = 0.0\nsamples = 114\nvalue = [0, 0, 0, 0, 0, 0, 0, 0, 0, 0, 0, 0, 0, 0\n0, 0, 0, 0, 114, 0, 0, 0, 0, 0, 0, 0, 0, 0\n0, 0, 0, 0, 0, 0, 0, 0, 0, 0, 0, 0, 0]\nclass = Heart attack", fillcolor="#39dce5"] ;
98 -> 99 ;
100 [label="gini = 0.0\nsamples = 6\nvalue = [0, 0, 0, 0, 0, 0, 0, 0, 0, 0, 0, 0, 0, 0\n0, 0, 6, 0, 0, 0, 0, 0, 0, 0, 0, 0, 0, 0\n0, 0, 0, 0, 0, 0, 0, 0, 0, 0, 0, 0, 0]\nclass = GERD", fillcolor="#39e5ba"] ;
98 -> 100 ;
101 [label="gini = 0.0\nsamples = 6\nvalue = [0, 0, 0, 0, 0, 0, 0, 0, 0, 0, 0, 0, 0, 0\n0, 0, 0, 0, 0, 0, 0, 0, 0, 6, 0, 0, 0, 0\n0, 0, 0, 0, 0, 0, 0, 0, 0, 0, 0, 0, 0]\nclass = Hypertension ", fillcolor="#3961e5"] ;
97 -> 101 ;
102 [label="gini = 0.0\nsamples = 108\nvalue = [0, 0, 0, 0, 0, 0, 0, 0, 0, 0, 0, 0, 0, 0\n0, 0, 108, 0, 0, 0, 0, 0, 0, 0, 0, 0, 0, 0\n0, 0, 0, 0, 0, 0, 0, 0, 0, 0, 0, 0, 0]\nclass = GERD", fillcolor="#39e5ba"] ;
96 -> 102 ;
103 [label="gini = 0.0\nsamples = 114\nvalue = [114, 0, 0, 0, 0, 0, 0, 0, 0, 0, 0, 0, 0, 0\n0, 0, 0, 0, 0, 0, 0, 0, 0, 0, 0, 0, 0, 0\n0, 0, 0, 0, 0, 0, 0, 0, 0, 0, 0, 0, 0]\nclass = (vertigo) Paroymsal  Positional Vertigo", fillcolor="#e58139"] ;
27 -> 103 ;
104 [label="gini = 0.0\nsamples = 114\nvalue = [0, 0, 0, 0, 0, 0, 0, 0, 0, 0, 0, 0, 0, 0\n0, 0, 0, 0, 0, 0, 0, 0, 0, 0, 0, 0, 0, 0\n114, 0, 0, 0, 0, 0, 0, 0, 0, 0, 0, 0, 0]\nclass = Jaundice", fillcolor="#8f39e5"] ;
26 -> 104 ;
105 [label="gini = 0.0\nsamples = 114\nvalue = [0, 0, 0, 0, 0, 0, 0, 0, 0, 0, 0, 0, 0, 0\n0, 0, 0, 0, 0, 0, 0, 0, 0, 0, 0, 0, 0, 0\n0, 0, 0, 0, 0, 0, 0, 0, 0, 0, 114, 0, 0]\nclass = Urinary tract infection", fillcolor="#e5393f"] ;
25 -> 105 ;
106 [label="gini = 0.0\nsamples = 114\nvalue = [0, 0, 0, 0, 0, 0, 0, 0, 0, 0, 0, 0, 0, 0\n0, 0, 0, 0, 0, 0, 0, 0, 0, 0, 0, 0, 0, 0\n0, 0, 0, 0, 114, 0, 0, 0, 0, 0, 0, 0, 0]\nclass = Paralysis (brain hemorrhage)", fillcolor="#e539d7"] ;
24 -> 106 ;
107 [label="gini = 0.0\nsamples = 114\nvalue = [0, 0, 0, 0, 0, 114, 0, 0, 0, 0, 0, 0, 0, 0\n0, 0, 0, 0, 0, 0, 0, 0, 0, 0, 0, 0, 0, 0\n0, 0, 0, 0, 0, 0, 0, 0, 0, 0, 0, 0, 0]\nclass = Arthritis", fillcolor="#cee539"] ;
23 -> 107 ;
108 [label="gini = 0.0\nsamples = 114\nvalue = [0, 0, 0, 0, 0, 0, 0, 0, 0, 0, 0, 0, 0, 0\n0, 0, 0, 0, 0, 0, 0, 0, 0, 0, 0, 0, 0, 0\n0, 0, 0, 0, 0, 0, 0, 114, 0, 0, 0, 0, 0]\nclass = Psoriasis", fillcolor="#e53989"] ;
22 -> 108 ;
109 [label="gini = 0.0\nsamples = 114\nvalue = [0, 0, 0, 0, 0, 0, 0, 0, 0, 0, 0, 0, 0, 0\n0, 0, 0, 0, 0, 0, 0, 0, 0, 0, 0, 0, 0, 0\n0, 0, 0, 114, 0, 0, 0, 0, 0, 0, 0, 0, 0]\nclass = Osteoarthristis", fillcolor="#dc39e5"] ;
21 -> 109 ;
110 [label="gini = 0.0\nsamples = 114\nvalue = [0, 0, 0, 0, 0, 0, 114, 0, 0, 0, 0, 0, 0, 0\n0, 0, 0, 0, 0, 0, 0, 0, 0, 0, 0, 0, 0, 0\n0, 0, 0, 0, 0, 0, 0, 0, 0, 0, 0, 0, 0]\nclass = Bronchial Asthma", fillcolor="#b4e539"] ;
20 -> 110 ;
111 [label="gini = 0.0\nsamples = 114\nvalue = [0, 0, 0, 0, 0, 0, 0, 0, 0, 0, 0, 0, 0, 0\n0, 0, 0, 0, 0, 0, 0, 0, 0, 114, 0, 0, 0, 0\n0, 0, 0, 0, 0, 0, 0, 0, 0, 0, 0, 0, 0]\nclass = Hypertension ", fillcolor="#3961e5"] ;
19 -> 111 ;
112 [label="gini = 0.0\nsamples = 114\nvalue = [0, 0, 0, 114, 0, 0, 0, 0, 0, 0, 0, 0, 0, 0\n0, 0, 0, 0, 0, 0, 0, 0, 0, 0, 0, 0, 0, 0\n0, 0, 0, 0, 0, 0, 0, 0, 0, 0, 0, 0, 0]\nclass = Alcoholic hepatitis", fillcolor="#e5cb39"] ;
18 -> 112 ;
113 [label="gini = 0.0\nsamples = 114\nvalue = [0, 0, 0, 0, 0, 0, 0, 0, 0, 0, 0, 0, 0, 0\n0, 0, 0, 114, 0, 0, 0, 0, 0, 0, 0, 0, 0, 0\n0, 0, 0, 0, 0, 0, 0, 0, 0, 0, 0, 0, 0]\nclass = Gastroenteritis", fillcolor="#39e5d4"] ;
17 -> 113 ;
114 [label="gini = 0.0\nsamples = 114\nvalue = [0, 0, 0, 0, 0, 0, 0, 0, 0, 0, 0, 0, 0, 0\n0, 0, 0, 0, 0, 0, 0, 0, 0, 0, 0, 0, 0, 0\n0, 0, 114, 0, 0, 0, 0, 0, 0, 0, 0, 0, 0]\nclass = Migraine", fillcolor="#c339e5"] ;
16 -> 114 ;
115 [label="gini = 0.0\nsamples = 114\nvalue = [0, 0, 0, 0, 0, 0, 0, 0, 0, 0, 0, 0, 0, 0\n0, 0, 0, 0, 0, 0, 0, 0, 0, 0, 0, 0, 0, 114\n0, 0, 0, 0, 0, 0, 0, 0, 0, 0, 0, 0, 0]\nclass = Impetigo", fillcolor="#7839e5"] ;
15 -> 115 ;
116 [label="gini = 0.0\nsamples = 114\nvalue = [0, 0, 0, 0, 0, 0, 0, 0, 0, 0, 0, 0, 0, 0\n0, 0, 0, 0, 0, 0, 0, 0, 0, 0, 0, 0, 0, 0\n0, 0, 0, 0, 0, 114, 0, 0, 0, 0, 0, 0, 0]\nclass = Peptic ulcer diseae", fillcolor="#e539bd"] ;
14 -> 116 ;
117 [label="gini = 0.0\nsamples = 114\nvalue = [0, 0, 0, 0, 0, 0, 0, 0, 0, 0, 0, 0, 0, 114\n0, 0, 0, 0, 0, 0, 0, 0, 0, 0, 0, 0, 0, 0\n0, 0, 0, 0, 0, 0, 0, 0, 0, 0, 0, 0, 0]\nclass = Dimorphic hemmorhoids(piles)", fillcolor="#39e56f"] ;
13 -> 117 ;
118 [label="gini = 0.0\nsamples = 114\nvalue = [0, 0, 0, 0, 0, 0, 0, 0, 0, 0, 0, 0, 0, 0\n0, 0, 0, 0, 0, 0, 0, 0, 0, 0, 0, 0, 0, 0\n0, 0, 0, 0, 0, 0, 0, 0, 0, 0, 0, 114, 0]\nclass = Varicose veins", fillcolor="#e54d39"] ;
12 -> 118 ;
119 [label="X[25] <= 0.5\ngini = 0.499\nsamples = 228\nvalue = [0, 0, 0, 0, 108, 0, 0, 0, 0, 0, 0, 0, 0, 0\n0, 0, 0, 0, 0, 0, 0, 0, 0, 0, 0, 0, 0, 0\n0, 0, 0, 0, 0, 0, 0, 0, 0, 120, 0, 0, 0]\nclass = Typhoid", fillcolor="#fcebee"] ;
11 -> 119 ;
120 [label="gini = 0.0\nsamples = 108\nvalue = [0, 0, 0, 0, 108, 0, 0, 0, 0, 0, 0, 0, 0, 0\n0, 0, 0, 0, 0, 0, 0, 0, 0, 0, 0, 0, 0, 0\n0, 0, 0, 0, 0, 0, 0, 0, 0, 0, 0, 0, 0]\nclass = Allergy", fillcolor="#e5e539"] ;
119 -> 120 ;
121 [label="gini = 0.0\nsamples = 120\nvalue = [0, 0, 0, 0, 0, 0, 0, 0, 0, 0, 0, 0, 0, 0\n0, 0, 0, 0, 0, 0, 0, 0, 0, 0, 0, 0, 0, 0\n0, 0, 0, 0, 0, 0, 0, 0, 0, 120, 0, 0, 0]\nclass = Typhoid", fillcolor="#e53958"] ;
119 -> 121 ;
122 [label="gini = 0.0\nsamples = 120\nvalue = [0, 0, 0, 0, 0, 0, 0, 0, 120, 0, 0, 0, 0, 0\n0, 0, 0, 0, 0, 0, 0, 0, 0, 0, 0, 0, 0, 0\n0, 0, 0, 0, 0, 0, 0, 0, 0, 0, 0, 0, 0]\nclass = Chicken pox", fillcolor="#81e539"] ;
10 -> 122 ;
123 [label="gini = 0.0\nsamples = 120\nvalue = [0, 0, 0, 0, 0, 0, 0, 0, 0, 0, 0, 0, 0, 0\n0, 0, 0, 0, 0, 0, 0, 0, 120, 0, 0, 0, 0, 0\n0, 0, 0, 0, 0, 0, 0, 0, 0, 0, 0, 0, 0]\nclass = Hepatitis E", fillcolor="#3978e5"] ;
9 -> 123 ;
124 [label="gini = 0.0\nsamples = 120\nvalue = [0, 0, 0, 0, 0, 0, 0, 0, 0, 0, 0, 0, 0, 0\n0, 0, 0, 0, 0, 120, 0, 0, 0, 0, 0, 0, 0, 0\n0, 0, 0, 0, 0, 0, 0, 0, 0, 0, 0, 0, 0]\nclass = Hepatitis B", fillcolor="#39c5e5"] ;
8 -> 124 ;
125 [label="gini = 0.0\nsamples = 120\nvalue = [0, 0, 0, 0, 0, 0, 0, 0, 0, 0, 0, 0, 0, 0\n0, 0, 0, 0, 0, 0, 0, 0, 0, 0, 0, 120, 0, 0\n0, 0, 0, 0, 0, 0, 0, 0, 0, 0, 0, 0, 0]\nclass = Hypoglycemia", fillcolor="#4439e5"] ;
7 -> 125 ;
126 [label="X[41] <= 0.5\ngini = 0.5\nsamples = 240\nvalue = [0, 0, 0, 0, 0, 0, 0, 0, 0, 0, 0, 0, 0, 0\n0, 0, 0, 0, 0, 0, 0, 0, 0, 0, 0, 0, 0, 0\n0, 120, 0, 0, 0, 0, 0, 0, 0, 0, 0, 0, 120]\nclass = Malaria", fillcolor="#ffffff"] ;
6 -> 126 ;
127 [label="gini = 0.0\nsamples = 120\nvalue = [0, 0, 0, 0, 0, 0, 0, 0, 0, 0, 0, 0, 0, 0\n0, 0, 0, 0, 0, 0, 0, 0, 0, 0, 0, 0, 0, 0\n0, 120, 0, 0, 0, 0, 0, 0, 0, 0, 0, 0, 0]\nclass = Malaria", fillcolor="#a939e5"] ;
126 -> 127 ;
128 [label="gini = 0.0\nsamples = 120\nvalue = [0, 0, 0, 0, 0, 0, 0, 0, 0, 0, 0, 0, 0, 0\n0, 0, 0, 0, 0, 0, 0, 0, 0, 0, 0, 0, 0, 0\n0, 0, 0, 0, 0, 0, 0, 0, 0, 0, 0, 0, 120]\nclass = hepatitis A", fillcolor="#e56739"] ;
126 -> 128 ;
129 [label="gini = 0.0\nsamples = 120\nvalue = [0, 0, 0, 0, 0, 0, 0, 0, 0, 0, 0, 0, 0, 0\n0, 0, 0, 0, 0, 0, 0, 0, 0, 0, 0, 0, 0, 0\n0, 0, 0, 0, 0, 0, 0, 0, 120, 0, 0, 0, 0]\nclass = Tuberculosis", fillcolor="#e5396f"] ;
5 -> 129 ;
130 [label="gini = 0.0\nsamples = 120\nvalue = [0, 0, 0, 0, 0, 0, 0, 0, 0, 0, 0, 120, 0, 0\n0, 0, 0, 0, 0, 0, 0, 0, 0, 0, 0, 0, 0, 0\n0, 0, 0, 0, 0, 0, 0, 0, 0, 0, 0, 0, 0]\nclass = Dengue", fillcolor="#39e53c"] ;
4 -> 130 ;
131 [label="gini = 0.0\nsamples = 120\nvalue = [0, 0, 0, 0, 0, 0, 0, 0, 0, 0, 120, 0, 0, 0\n0, 0, 0, 0, 0, 0, 0, 0, 0, 0, 0, 0, 0, 0\n0, 0, 0, 0, 0, 0, 0, 0, 0, 0, 0, 0, 0]\nclass = Common Cold", fillcolor="#50e539"] ;
3 -> 131 ;
132 [label="gini = 0.0\nsamples = 120\nvalue = [0, 0, 0, 0, 0, 0, 0, 0, 0, 0, 0, 0, 120, 0\n0, 0, 0, 0, 0, 0, 0, 0, 0, 0, 0, 0, 0, 0\n0, 0, 0, 0, 0, 0, 0, 0, 0, 0, 0, 0, 0]\nclass = Diabetes ", fillcolor="#39e556"] ;
2 -> 132 ;
133 [label="X[71] <= 0.5\ngini = 0.5\nsamples = 240\nvalue = [0, 0, 0, 0, 0, 0, 0, 0, 0, 0, 0, 0, 0, 0\n0, 0, 0, 0, 0, 0, 0, 0, 0, 0, 120, 0, 120, 0\n0, 0, 0, 0, 0, 0, 0, 0, 0, 0, 0, 0, 0]\nclass = Hyperthyroidism", fillcolor="#ffffff"] ;
1 -> 133 ;
134 [label="gini = 0.0\nsamples = 120\nvalue = [0, 0, 0, 0, 0, 0, 0, 0, 0, 0, 0, 0, 0, 0\n0, 0, 0, 0, 0, 0, 0, 0, 0, 0, 120, 0, 0, 0\n0, 0, 0, 0, 0, 0, 0, 0, 0, 0, 0, 0, 0]\nclass = Hyperthyroidism", fillcolor="#3947e5"] ;
133 -> 134 ;
135 [label="gini = 0.0\nsamples = 120\nvalue = [0, 0, 0, 0, 0, 0, 0, 0, 0, 0, 0, 0, 0, 0\n0, 0, 0, 0, 0, 0, 0, 0, 0, 0, 0, 0, 120, 0\n0, 0, 0, 0, 0, 0, 0, 0, 0, 0, 0, 0, 0]\nclass = Hypothyroidism", fillcolor="#5e39e5"] ;
133 -> 135 ;
136 [label="gini = 0.0\nsamples = 120\nvalue = [0, 0, 0, 0, 0, 0, 0, 0, 0, 0, 0, 0, 0, 0\n0, 0, 0, 0, 0, 0, 0, 0, 0, 0, 0, 0, 0, 0\n0, 0, 0, 0, 0, 0, 120, 0, 0, 0, 0, 0, 0]\nclass = Pneumonia", fillcolor="#e539a3"] ;
0 -> 136 [labeldistance=2.5, labelangle=-45, headlabel="False"] ;
}